digraph Tree {
node [shape=box, style="filled", color="black"] ;
0 [label="kurtosis_glucose <= -0.064\ngini = 0.386\nsamples = 2440\nvalue = [1803, 637]", fillcolor="#eeae7f"] ;
1 [label="std_oxygen <= 0.34\ngini = 0.042\nsamples = 1843\nvalue = [1803, 40]", fillcolor="#e6843d"] ;
0 -> 1 [labeldistance=2.5, labelangle=45, headlabel="True"] ;
3 [label="kurtosis_oxygen <= -0.245\ngini = 0.019\nsamples = 1820\nvalue = [1803, 17]", fillcolor="#e5823b"] ;
1 -> 3 ;
5 [label="kurtosis_glucose <= -0.375\ngini = 0.109\nsamples = 190\nvalue = [179, 11]", fillcolor="#e78945"] ;
3 -> 5 ;
7 [label="skewness_glucose <= 0.273\ngini = 0.025\nsamples = 159\nvalue = [157, 2]", fillcolor="#e5833c"] ;
5 -> 7 ;
21 [label="(...)", fillcolor="#C0C0C0"] ;
7 -> 21 ;
22 [label="(...)", fillcolor="#C0C0C0"] ;
7 -> 22 ;
8 [label="skewness_oxygen <= -0.439\ngini = 0.412\nsamples = 31\nvalue = [22, 9]", fillcolor="#f0b58a"] ;
5 -> 8 ;
9 [label="(...)", fillcolor="#C0C0C0"] ;
8 -> 9 ;
10 [label="(...)", fillcolor="#C0C0C0"] ;
8 -> 10 ;
6 [label="skewness_glucose <= 0.911\ngini = 0.007\nsamples = 1630\nvalue = [1624, 6]", fillcolor="#e5813a"] ;
3 -> 6 ;
17 [label="std_oxygen <= -0.292\ngini = 0.006\nsamples = 1627\nvalue = [1622, 5]", fillcolor="#e5813a"] ;
6 -> 17 ;
29 [label="(...)", fillcolor="#C0C0C0"] ;
17 -> 29 ;
30 [label="(...)", fillcolor="#C0C0C0"] ;
17 -> 30 ;
18 [label="kurtosis_oxygen <= 0.442\ngini = 0.444\nsamples = 3\nvalue = [2, 1]", fillcolor="#f2c09c"] ;
6 -> 18 ;
19 [label="(...)", fillcolor="#C0C0C0"] ;
18 -> 19 ;
20 [label="(...)", fillcolor="#C0C0C0"] ;
18 -> 20 ;
4 [label="gini = 0.0\nsamples = 23\nvalue = [0, 23]", fillcolor="#399de5"] ;
1 -> 4 ;
2 [label="gini = 0.0\nsamples = 597\nvalue = [0, 597]", fillcolor="#399de5"] ;
0 -> 2 [labeldistance=2.5, labelangle=-45, headlabel="False"] ;
}